{
  "scaler_mean": [
    0.1206809137843449,
    0.13438248711182932,
    0.10676826070994139,
    0.027614226401887935,
    0.003861672574896449,
    0.014690500566884123,
    5.897922645930309e-05,
    7.70789072330159e-06
  ],
  "scaler_scale": [
    0.00822425567468562,
    0.009141496078574946,
    0.0077743546067642905,
    0.004437737360960276,
    0.0007233839169911474,
    0.0019391949314555568,
    2.779708945321619e-05,
    0.0005219216906178717
  ],
  "fc1_weight": [
    [
      0.3592158555984497,
      0.3871477544307709,
      -0.012106957845389843,
      0.42318928241729736,
      0.050675246864557266,
      0.15832661092281342,
      -0.11249681562185287,
      0.21056565642356873
    ],
    [
      0.232972651720047,
      -0.3370538353919983,
      0.2295885682106018,
      0.003526065032929182,
      0.15399529039859772,
      -0.02928844280540943,
      0.12239759415388107,
      -0.017302798107266426
    ],
    [
      0.25719889998435974,
      0.04110083356499672,
      -0.1711132824420929,
      0.07334258407354355,
      -0.23483487963676453,
      -0.06173565611243248,
      -0.09623956680297852,
      0.20166797935962677
    ],
    [
      -0.203008234500885,
      -0.0866202712059021,
      -0.023824911564588547,
      -0.21940824389457703,
      -0.03723008930683136,
      -0.27415359020233154,
      0.29493504762649536,
      -0.30366936326026917
    ],
    [
      0.19268563389778137,
      -0.022546302527189255,
      -0.1929333657026291,
      0.14228534698486328,
      -0.008511667139828205,
      0.2055184543132782,
      -0.035660941153764725,
      -0.09832102060317993
    ],
    [
      0.16676360368728638,
      -0.004872460849583149,
      0.19973056018352509,
      0.42079970240592957,
      0.3426520824432373,
      -0.0779305249452591,
      0.2790939211845398,
      0.04621649533510208
    ],
    [
      0.0921146422624588,
      -0.3208773136138916,
      -0.4370851218700409,
      -0.19605836272239685,
      -0.1577981412410736,
      0.2033504992723465,
      0.01683962345123291,
      0.18378908932209015
    ],
    [
      0.1831575185060501,
      0.04939103126525879,
      0.3579505681991577,
      -0.2989608645439148,
      0.15326665341854095,
      -0.17585144937038422,
      0.0038573138881474733,
      -0.15816205739974976
    ]
  ],
  "fc1_bias": [
    0.21954961121082306,
    -0.17283788323402405,
    0.20491577684879303,
    -0.26308852434158325,
    -0.27943646907806396,
    -0.079511359333992,
    0.4421044886112213,
    0.23971019685268402
  ],
  "fc2_weight": [
    [
      0.4515150487422943,
      -0.2155729979276657,
      -0.27682557702064514,
      -0.20495247840881348,
      -0.16876091063022614,
      0.2663637399673462,
      0.23796190321445465,
      0.41941139101982117
    ]
  ],
  "fc2_bias": [
    -0.06923764944076538
  ]
}